16
16
8
10
0.534439086914
-1.20381164551
-1.64552307129
0.0841522216797
-0.310043334961
-1.96699523926
0.203872680664
0.738235473633
-0.287933349609
0.76774597168
-0.179077148438
2.71835327148
-1.24865722656
0.127410888672
0.484481811523
-1.33164978027
-1.36526489258
0.624862670898
-0.0648956298828
-0.0858459472656
0.429412841797
-0.596923828125
-1.33502197266
1.14862060547
0.745407104492
-0.47541809082
-0.0401306152344
1.69013977051
-0.867401123047
2.15618896484
-0.821716308594
0.18798828125
1.43127441406
-0.286804199219
0.305435180664
-0.719589233398
1.13583374023
1.08067321777
0.413543701172
-1.2645111084
1.32963562012
0.811187744141
-2.70150756836
-1.64334106445
-0.241973876953
-0.0687713623047
-0.888854980469
0.304473876953
-0.92008972168
1.35865783691
-1.21047973633
0.238464355469
1.89109802246
0.591567993164
-1.02705383301
-1.46318054199
0.967681884766
-0.741180419922
-0.389022827148
-1.93545532227
-0.837371826172
-0.744842529297
0.754013061523
0.760208129883
-0.00985717773438
0.204360961914
-1.76834106445
-1.61772155762
-0.246520996094
0.450714111328
-0.922943115234
-1.04106140137
-1.92527770996
-1.95991516113
-0.187942504883
-0.104049682617
0.140930175781
-0.264770507812
0.594680786133
-1.4757232666
-0.637573242188
-1.67849731445
-0.527801513672
0.150604248047
1.20347595215
2.09713745117
0.826049804688
-0.0408020019531
-0.637542724609
0.373443603516
0.931655883789
0.603729248047
-0.401016235352
2.19145202637
0.126602172852
0.00930786132812
0.784210205078
-1.06246948242
1.07926940918
1.4274597168
1.11535644531
-1.33491516113
-1.40000915527
0.822372436523
-0.252090454102
0.656936645508
1.39305114746
0.213363647461
-0.913375854492
-0.0885467529297
0.307495117188
-0.339385986328
3.18656921387
1.51678466797
0.536102294922
0.0737915039062
-0.09619140625
0.362091064453
-1.30838012695
-1.27261352539
0.10758972168
2.22833251953
1.22653198242
-0.114288330078
1.52587890625e-05
1.56448364258
-0.555130004883
1.29689025879
-0.743408203125
0.53938293457
-0.0592498779297
0.430969238281
0.233520507812
0.479858398438
-1.3324432373
-1.0626373291
-0.238830566406
-1.64924621582
0.378952026367
0.08740234375
-0.98274230957
-1.03521728516
-1.09182739258
0.543701171875
1.44876098633
1.07293701172
0.188018798828
-1.18994140625
-0.165496826172
-0.587646484375
0.0790710449219
-0.199203491211
-0.875289916992
0.351776123047
-2.19863891602
-0.0547637939453
-0.53288269043
2.35890197754
-0.324188232422
-2.07948303223
-1.32202148438
-0.00457763671875
0.222396850586
-0.121612548828
-0.641830444336
1.05003356934
0.0181732177734
-0.907150268555
-0.601638793945
0.721420288086
-0.876815795898
0.522415161133
0.418167114258
1.21328735352
0.214401245117
1.04350280762
-0.394317626953
-0.820541381836
-0.63639831543
-0.323684692383
-0.653396606445
-0.200607299805
-1.40644836426
-1.61486816406
-0.294952392578
0.74137878418
-0.268768310547
0.402252197266
-0.692733764648
1.80450439453
0.151443481445
0.886047363281
-0.950439453125
-0.445587158203
-0.233947753906
1.55502319336
-1.51058959961
0.014404296875
1.26698303223
0.752792358398
0.440734863281
-1.56089782715
0.558227539062
-1.34683227539
-0.146697998047
0.988098144531
-1.35626220703
0.986968994141
0.127807617188
-0.576644897461
0.0991973876953
0.311096191406
-1.21284484863
-0.953094482422
1.5110168457
-0.684127807617
-0.896423339844
-0.566696166992
0.606185913086
-0.770065307617
-0.38557434082
-0.0153350830078
-0.520767211914
2.69364929199
-1.47573852539
-0.545776367188
-1.27923583984
0.0688323974609
0.659423828125
1.17709350586
0.98225402832
0.478164672852
0.607574462891
1.46522521973
0.316040039062
-0.644165039062
0.361145019531
0.106018066406
0.386123657227
-0.456100463867
2.01892089844
1.89152526855
-0.124725341797
0.20491027832
-0.118591308594
0.259704589844
-1.54751586914
0.178497314453
-0.416061401367
0.321273803711
0.845321655273
-0.215057373047
-0.719589233398
-0.767013549805
-0.200134277344
-0.404937744141
0.308456420898
1.25219726562
-0.241516113281
-0.48698425293
-0.353179931641
0.839904785156
-0.741622924805
2.17533874512
1.14202880859
1.08708190918
0.277359008789
-0.755889892578
0.614501953125
-1.55894470215
0.456817626953
-1.26702880859
0.195190429688
-0.529800415039
0.35710144043
-1.65753173828
-1.58665466309
-0.145904541016
-0.367202758789
-0.43994140625
1.50198364258
0.260833740234
1.89126586914
-1.21237182617
-0.948745727539
0.496795654297
2.17362976074
-0.241577148438
-1.02783203125
0.147567749023
-1.25094604492
0.696929931641
-1.50477600098
-0.176208496094
0.587265014648
-2.09069824219
-0.546905517578
0.0270233154297
-0.16584777832
-0.290725708008
-1.21533203125
-2.26918029785
-0.81965637207
0.6015625
-0.677688598633
0.891876220703
-1.22511291504
-0.00279235839844
-0.776260375977
2.25500488281
-0.197906494141
-1.49273681641
0.97184753418
0.817489624023
-0.668090820312
1.0733795166
0.963272094727
1.10354614258
0.48567199707
-1.89106750488
-0.682571411133
0.895248413086
-0.353424072266
1.05639648438
-0.889083862305
0.45930480957
0.959197998047
-0.100601196289
-0.410217285156
-0.0170135498047
-0.828674316406
0.825622558594
-1.08129882812
0.394195556641
0.433181762695
-1.34671020508
0.436279296875
-1.17172241211
-0.0451965332031
1.11685180664
-0.921478271484
1.60137939453
-0.394302368164
-0.00132751464844
0.0855102539062
0.0454559326172
1.00038146973
-1.12762451172
-0.223907470703
0.654403686523
-1.06146240234
-0.867813110352
-1.76670837402
-0.390747070312
-1.86930847168
-0.0161590576172
0.220184326172
-0.547210693359
0.375564575195
-0.962158203125
0.262145996094
-0.203750610352
-0.746887207031
-0.447662353516
-1.46917724609
0.0918884277344
-0.926620483398
-0.466690063477
0.0305633544922
-1.16659545898
0.310791015625
-0.485260009766
-0.408828735352
1.63008117676
-1.67445373535
-0.733169555664
0.140869140625
-0.913772583008
0.595016479492
-0.860702514648
-1.337890625
-0.594680786133
-0.285125732422
-0.820831298828
-0.326187133789
-0.700714111328
-0.933364868164
-2.61483764648
0.328369140625
1.56086730957
-0.270812988281
-0.393737792969
0.767181396484
-1.15063476562
-1.12289428711
-0.999160766602
0.259719848633
-0.0311889648438
0.183502197266
-0.864547729492
-0.939437866211
-0.541351318359
-1.16073608398
0.577606201172
0.946746826172
0.942153930664
1.13313293457
-1.50064086914
1.02671813965
0.169647216797
-0.456665039062
-0.66194152832
-2.08062744141
2.49516296387
-0.415145874023
0.82421875
-0.463775634766
-1.40420532227
-0.737808227539
1.5590057373
0.133850097656
-0.936157226562
-1.82598876953
-2.4741973877
-1.18690490723
-0.715072631836
-1.32652282715
-0.164474487305
0.0540008544922
-0.397491455078
0.0749664306641
-0.377777099609
0.0762329101562
0.795227050781
-1.66053771973
0.285049438477
0.150650024414
-0.138885498047
-0.6650390625
-0.182006835938
-0.479782104492
-0.817123413086
-0.196914672852
-2.40817260742
-1.84368896484
-0.539337158203
0.704925537109
0.818298339844
0.371017456055
-0.710357666016
-1.01873779297
-1.17929077148
-1.47817993164
0.219207763672
-1.28575134277
-0.431869506836
2.67561340332
-0.217514038086
0.194717407227
-0.942901611328
-0.86784362793
-1.30305480957
-0.315292358398
-1.10375976562
