64
16
4
1
2.082890800
1.448056350
0.320644022
0.423631087
1.112950756
0.652784964
-1.117899900
-0.052789680
0.814906825
0.496852605
-1.112677964
0.503199782
-0.760473117
-0.171670301
-0.891175113
-0.769802503
0.436905119
1.475499294
-0.073088769
0.495814433
-0.565899289
-0.391838511
-0.504541062
0.136705041
0.900229854
-1.872472130
0.669306105
1.070799485
1.440434383
2.079563652
-0.703504467
-0.370108277
-0.519696324
0.531767838
0.891250393
-0.154446484
-2.481753257
-0.294323418
2.734612910
0.402781765
-0.458827629
-0.381920688
0.588066233
-0.119401298
-0.876064795
0.173057932
0.328722556
-1.184316425
1.446993174
-0.283503706
0.067717882
0.562548345
2.312888912
0.826586099
0.355106897
-0.515944367
1.575786360
0.452499791
0.395776392
1.057857734
0.597441464
2.536992240
2.055427038
0.494058036
1.139654203
0.913712262
-0.652972188
0.236425093
-0.538794043
-0.395408022
-0.446012182
0.292429211
-2.134321439
-0.944269873
-1.588147368
-2.014467835
0.962829856
1.311811078
0.621543373
-0.356668040
0.553366666
0.196524745
0.787811485
0.473644666
0.524549639
2.629195740
-1.998651556
1.339265274
0.785662224
0.289115585
-0.044875656
-1.011599833
-1.625444199
-1.033260699
1.364070812
0.716920698
-2.715728105
1.290828010
-0.930650399
1.291151357
0.381962534
1.028471387
-0.039910428
0.043006455
0.232613171
-1.233801172
0.336675415
0.294502839
-0.316278591
0.212882538
0.709989159
-0.372048229
-0.569444011
0.463170368
0.401488889
-1.023435685
1.175288791
-0.665263254
-1.261231335
-0.580400556
-0.531427432
-0.474125082
-0.985060779
-0.128257377
0.581451031
0.945769613
1.026387576
-0.422574525
0.717507023
0.469103629
0.024941195
0.720468413
0.856071026
1.144547638
0.538428069
-0.759212812
0.808337207
0.732147553
0.024357595
-0.315744418
0.058641652
-0.432848203
-0.901156864
-0.108501512
-0.107144995
-1.092607683
1.583064233
-0.431864864
-0.379778028
0.061527358
1.064589131
0.151956786
0.066142862
-1.151416183
-0.138502786
0.663149373
0.228976377
-0.299906148
-1.831162635
0.011543298
-0.106397885
1.990152517
1.813835322
0.085911247
-0.303232576
-0.905037618
-0.318715450
0.235535565
0.400601133
-0.912222228
-1.610068658
0.332519194
-0.456147779
0.288530870
-0.689959500
-0.961322073
-1.734907468
0.062447841
1.295908049
-0.444053756
0.443685580
0.969430181
0.487560207
1.415671929
-1.056651154
0.453032152
-0.037126434
-1.081473871
1.660630477
1.631106079
-0.673581919
-1.037193262
-0.393515870
-1.215849090
-0.760821332
-0.414872783
-1.064418537
0.571656531
-0.373976087
-0.136090806
0.689077499
-0.722972345
0.805511925
1.367813801
1.484873233
-1.185613221
-1.415087833
0.156520102
-0.484317064
-0.574167220
-1.332224117
-0.463364986
-1.114857360
0.716801208
-0.310868041
-1.662139460
0.840651286
-1.493717689
1.065069005
-0.439075705
-0.011239286
0.144809886
-1.636853952
0.520207366
-0.195818136
-1.690230892
1.235898277
1.493098673
2.290385563
-0.045467828
2.315641212
-0.454203028
-0.411028492
1.190386359
0.018673429
0.667200663
-0.054138034
-0.439158019
-1.592993121
0.796839625
0.847886807
-0.027412560
-0.657351055
2.322956328
-0.376118362
-0.058343046
-0.916366282
-0.381874579
0.327906351
0.944424920
0.258948434
0.482081642
1.049476743
1.954995522
-0.444707934
0.531689856
-0.318601344
-0.410559685
1.443823742
1.079426397
-1.290555522
0.732651681
0.421215851
-0.148985509
1.440730872
-0.214819387
1.835387561
-0.033544264
0.094471303
0.907525792
0.918111936
0.116326213
-0.899081325
0.386181287
-0.267763926
0.320808055
-1.108875154
0.116270619
0.245334021
1.858932071
-1.343753953
1.011963901
0.214932812
-1.711696822
0.038540400
1.139164752
1.689339073
1.423970632
-0.508448966
-0.573032508
-0.290547458
0.158098123
-1.421220532
-0.183386792
0.985370597
0.090481171
0.993490587
0.157231080
0.428060935
1.578472536
-0.089337149
-0.695618259
-0.448624779
1.140806702
1.176216022
0.154822858
-2.051701485
1.364010667
-0.159901041
-0.244577554
1.362895661
-0.340571898
-0.183319699
-1.168661640
-0.060249709
-0.365505314
0.924606524
0.486215747
-0.940696203
-1.294795809
-1.828122583
0.084590022
0.699780497
0.779444712
1.383942009
-0.435575026
-1.669093809
-0.724157753
0.218617676
-0.464547159
0.775492635
-1.445706281
-0.060602587
-0.174297984
-0.153485455
-0.038096548
0.407670906
-0.561977257
-0.213263543
0.155220930
-1.084169935
0.185514327
0.542863857
0.698917554
1.419549971
0.243884723
1.599832310
0.461130802
-1.708982838
2.514039486
0.151852797
0.202375176
1.586106942
0.487425352
1.034660833
0.547381781
0.884481403
-0.762468875
-1.443062084
2.822092660
-1.126319315
1.187234285
0.261317505
1.348838569
-0.038614532
-0.733461309
-0.046440748
-1.774616504
-0.192715206
1.668299629
0.713956600
-0.085455823
-0.481062269
-0.808356014
-2.061729592
-1.904024457
-0.411450880
0.117560831
-0.567468377
-1.693652280
0.081194939
1.276156398
0.633480921
0.459250547
0.609495918
-0.583192222
-0.286480727
0.185543042
0.155797309
-0.986572293
2.004173956
-0.292160774
-3.244165719
-0.184565434
1.507105673
0.580388465
-0.038798130
-0.323203720
0.969624154
0.377618751
-1.064396152
-1.547861766
0.420537111
2.245720822
0.652497538
0.537944560
-0.242370524
-0.447610732
0.284022933
0.023198372
-0.287169772
2.040608411
-0.793403121
-0.852573216
0.917992136
-0.175034461
-0.689723578
-0.481469327
0.902964727
0.982964833
-0.783270253
-0.258494964
-0.678980368
-0.976867677
-0.499120943
0.511788064
-1.988361829
-1.097740721
-0.920062587
-0.013426367
1.420152265
1.390088831
0.175999417
-1.168022856
0.830332392
-1.592420004
0.001146548
0.051712233
0.344581102
-0.726523017
-0.384620466
-0.972079419
1.057676312
0.207343451
-1.075949783
0.294852815
-0.123255047
-0.200585763
-0.555039385
-0.748655831
-1.332555556
0.297157984
-0.575200637
-0.431768926
0.398929906
-0.519783719
0.043400594
-0.391323938
-0.134915752
0.039471506
0.075062359
-1.413517925
-1.103796202
-0.481864267
-0.164272381
-0.079731088
-0.977185390
0.522775717
-0.694231812
-1.310690486
0.045297821
-1.215222397
-1.823564474
0.754488690
-2.228277918
-0.527088732
0.887765384
-1.339268980
1.261171033
0.546179015
-1.687818982
0.276015734
0.288661583
-0.518692905
1.336561954
-0.301620674
-0.010128746
0.610632722
-1.131743985
0.819745964
-0.970928384
-0.803067424
1.197999503
0.961197580
0.592200760
-0.267802990
0.073868889
-0.633454711
-0.772946039
-0.889841376
0.446490718
0.233819976
-0.944444192
-0.822010404
-1.044890939
1.053063589
0.081809933
-0.232912025
1.076811796
-0.123585543
-1.403232459
-0.274352332
0.366919895
-1.116534767
1.097318144
1.553278378
-1.015744543
-0.435288695
-0.705053852
0.316859889
0.152462708
0.281246820
-0.430588444
-1.647089587
-0.657482859
1.821168272
1.546456350
-0.530445802
-0.232946470
-0.166496271
-1.271404146
-0.711259031
-0.835615541
0.411324323
0.431361641
-1.335463189
1.052480445
0.134039083
0.480535840
0.091314634
1.549759806
0.044617566
-0.362773854
-0.432759915
0.380058865
0.043323324
1.867523379
-0.819036325
0.303377250
-0.769985561
-1.046787007
0.057648320
0.954877857
-2.213255102
-0.018787130
0.515665227
-1.736980420
-1.038720595
-0.664573843
0.109501189
-0.931568683
0.486144353
-0.145861972
2.041933787
0.300232857
0.061015609
1.699066479
0.094683048
-1.044148457
0.121816862
-0.249951310
-0.160723611
-1.016808986
-0.626128706
-0.321265678
-0.391882819
0.590828554
-0.299188436
-0.013732119
0.121200930
-1.058322414
0.593628644
0.632523270
-0.467960818
-1.212216161
-0.033908351
-1.442153407
-0.870445649
0.454497685
-0.697231831
-1.074187148
0.372935721
0.782752867
-1.389914037
-0.199066890
0.392987576
1.083141572
-0.952879444
1.076973885
1.520247889
-0.248339942
0.362301077
1.608344825
0.785719957
1.119620537
0.588690005
1.265184395
2.248594896
-1.543416522
-0.826634403
0.567352703
0.705949020
-0.757732047
1.020685207
1.369650648
-1.571271334
-0.204469619
-0.588854500
0.029371684
-0.638564264
0.164047504
0.295922310
1.723228075
1.179367644
-0.959648348
0.598450498
0.887378651
-0.090979999
1.060178422
-0.469139999
1.506014881
0.696635178
-0.481090730
0.343394673
0.445206580
-2.107560512
0.743746363
-0.497872354
-1.405170786
1.949016547
0.883105112
-0.402588921
0.965527689
-0.289725600
-0.644254367
-0.712309354
0.318521891
0.220076686
0.935843179
0.201024013
0.670150676
1.224110022
-0.025523602
-1.042680422
-0.634961042
-1.237397910
-0.021581883
0.468673503
-0.033059481
0.179713315
-0.672772250
0.021436941
0.992076430
0.320125026
0.014739808
-0.576115182
0.190175673
0.197368691
-2.203044346
-2.558161105
0.449075191
-0.039258501
0.042220420
0.607573702
-1.442394273
-0.212803415
-1.085113641
0.221800735
-0.973547412
0.342408845
-1.668886656
-0.230654635
-0.818476745
-0.314309280
-2.667279500
2.602216245
1.914181795
0.914154455
-1.180572087
-0.410459937
-0.954663055
1.093910770
0.641251253
-1.439422877
0.306015294
-0.781584225
-1.066969826
0.029612039
0.702758333
2.331681236
-0.725969081
1.933103269
1.907406456
0.009432941
-2.290944059
1.138671897
1.496931148
-1.347036798
1.020718747
1.553952000
0.145712729
-0.964270888
0.557019116
-0.798693705
0.406338486
-1.220086292
-0.359320909
-0.677273567
-0.189804809
0.428472955
0.169480087
-1.107468694
0.130149325
-0.004419455
1.205341897
-0.866043966
0.068303953
-1.047869047
0.565292936
1.621424819
-0.326750891
-0.513023943
0.635534670
1.037287298
0.430897039
0.500046968
0.216458526
0.342980499
1.452025023
-0.679257376
0.396709067
-0.521223887
0.257620633
-0.902331939
-1.509970421
-1.242220520
-1.304751739
1.963986723
-0.856107914
0.490601810
-0.721444333
-0.009882362
-0.638029351
0.461200724
-0.387552300
-0.892901164
-0.187732851
0.467585658
0.090076350
0.769359376
2.550059350
-1.060933513
0.528028301
-0.682606439
-1.787959128
-1.351783185
0.395979737
2.067724908
-0.080477951
0.770558151
-0.641585701
0.154678519
1.358424647
-0.422091034
1.189723948
-0.061470014
0.957191151
1.110999384
-0.746269929
-0.048520196
-1.247934847
0.854859187
0.838412916
0.794486559
-1.181298904
1.107957824
-0.304088606
-1.711687147
-1.111813798
-0.556891482
0.111587949
2.102197633
2.048775625
0.501818179
0.012510162
1.171067344
0.376043572
-2.156892539
0.426311904
-0.438129090
-0.524783945
1.283623277
-0.790155398
0.959965322
-1.576487151
-0.108334333
-0.126672016
0.287141792
0.409247877
2.128223274
0.920687864
1.027473651
-0.582898851
1.440598327
-0.399481239
0.157588606
0.631655365
-1.247383885
0.045641780
-0.370718208
-1.129278139
0.254317864
-2.672180677
-0.285349715
-0.401327547
-0.750287218
-1.024973433
1.169782559
-1.083975989
0.157265791
-0.100657579
0.202633086
-1.476793595
0.773820352
-0.725950744
1.976091383
-0.835665672
0.549670207
0.618625532
0.838373352
0.059099361
-2.263340746
0.503371616
-1.331211376
-2.058463581
-0.483489659
0.529091452
-0.173620922
1.750130150
-0.334248387
-0.132287371
0.997730569
-1.324948739
-1.227392190
0.212704877
1.170177946
0.836203075
0.122425463
1.109943720
0.263994882
0.554432613
-1.421176822
0.403961144
0.883619407
1.604708781
-0.037036320
1.244938808
0.950535303
-0.986725351
0.326981414
-1.176081604
0.396519572
0.321709625
0.670623451
0.477284338
-0.768041535
1.004478315
-0.304428080
1.681782718
-0.891525300
-0.029641887
-2.250485133
-0.511859676
1.760239409
0.671752477
1.016854924
-1.759193242
0.455430245
-0.805914351
-0.530475248
0.128224363
-2.048314285
0.529775955
0.041556699
0.021253148
-0.799681110
0.400460911
-2.394386242
0.196628584
-0.880415298
-1.140888954
-0.533409133
2.625303329
1.286227983
-0.740706733
0.560149336
-0.257945703
-0.827605258
2.110071946
-1.680590657
0.338667645
-0.563557607
-0.991271607
-1.682518313
0.940169829
0.630117272
0.842192384
0.305573578
0.921816686
-0.066587460
-0.991778656
0.533256062
0.212971100
-0.720545203
1.455803522
-1.909099401
0.755555762
-1.346791003
-1.188246383
0.713247434
-0.328735360
1.423328079
-0.111822170
-1.673470111
0.224100356
-0.391750762
0.203808179
-0.970329214
1.171151931
-1.218573858
0.186785323
0.831370636
0.373701541
-1.190967997
-0.569348440
0.988088171
-1.421556477
0.202601618
-1.959837754
0.291462351
-0.594681842
0.311228788
-0.056336730
0.119319901
-0.520581913
0.904898750
-0.906748716
-3.050502058
-0.329728243
0.099087791
1.544634266
1.064316005
0.118403081
-1.587391353
-0.482952444
0.398018060
-0.194734193
1.103431483
0.425055263
0.600075281
0.525525941
1.132807182
2.227289090
-1.349212249
-1.348792509
0.813408972
-0.059006861
-1.257466827
0.550321254
-0.283002638
1.313313650
0.218953762
-0.720815669
0.612252340
0.820080983
0.194624224
-1.224550169
-0.916329130
-0.012539021
0.602332234
0.666336685
0.305919136
-1.647508549
-1.756172693
0.852824929
-0.017001362
-1.047780717
0.978120546
-0.486992998
-0.840938524
0.984980504
-0.486889907
-1.425946436
0.033425275
-0.371028177
0.593055519
0.303301669
-0.923319788
-0.064164889
-0.839151425
-1.773079687
-2.202592759
0.350190795
-0.784914850
-0.070774851
0.179057020
1.411945211
0.880971718
0.155869298
-0.891003149
-0.238198333
2.209176064
1.473831777
-0.345056393
0.806105048
-0.752966537
0.462899488
0.468081821
-0.138864265
0.665058129
0.893869051
0.250784427
-0.802572527
1.082507806
0.617439822
0.371116905
-0.164389000
0.475136166
1.344667991
1.549785000
-0.609075515
-1.106974682
0.757717095
-1.193286600
0.110972891
-1.284274491
0.926116827
0.134474528
-0.461990324
-0.022639635
0.335189866
0.729931864
-0.447255096
-0.063394626
-1.508786846
1.279503798
1.468798990
-0.227500788
0.056360898
-0.047008792
1.062836434
0.000244663
0.318123294
0.682120890
-1.497539192
-0.460782145
-1.858738848
0.827013350
-1.514905773
0.254241855
-1.082675356
1.110945241
1.761503152
-1.001320368
0.912795808
0.015737007
1.213076650
0.314369882
0.680408770
-0.150178105
0.339246599
-0.729344932
-0.909936276
-0.289838425
-0.715676552
-1.589635883
-0.523497699
-1.336424890
-1.295336168
-0.667957571
-0.287463846
0.000176615
